Language model created by QuickLM on Wed May 23 07:22:40 EDT 2012
Copyright (c) 1996-2010 Carnegie Mellon University and Alexander I. Rudnicky

The model is in standard ARPA format, designed by Doug Paul while he was at MITRE.

The code that was used to produce this language model is available in Open Source.
Please visit http://www.speech.cs.cmu.edu/tools/ for more information

The (fixed) discount mass is 0.5. The backoffs are computed using the ratio method.
This model based on a corpus of 77 sentences and 74 words

\data\
ngram 1=74
ngram 2=148
ngram 3=145

\1-grams:
-0.9486 </s> -0.3010
-0.9486 <s> -0.2419
-2.8351 A -0.2908
-2.8351 ABORT -0.2492
-2.8351 ALHASHMI -0.2492
-2.2330 ARE -0.2972
-2.5340 BACK -0.2492
-2.3579 BACKWARD -0.2492
-2.8351 CHRIS -0.2998
-2.8351 CHRISTOPHER -0.2998
-2.0569 COME -0.2855
-2.8351 DO -0.2972
-2.5340 DOING -0.2477
-2.8351 DOWN -0.2492
-2.5340 EGERTON -0.2492
-2.8351 ENG -0.3004
-2.8351 FASTER -0.2492
-2.8351 FOLLOW -0.2991
-2.3579 FORWARD -0.2492
-2.8351 FREEZE -0.2492
-2.0569 GO -0.2849
-2.2330 HAIKAL -0.2477
-2.8351 HALT -0.2492
-2.8351 HAVE -0.3004
-2.8351 HELLO -0.2492
-2.5340 HELP -0.2470
-2.8351 HERE -0.2492
-2.2330 HOW -0.2985
-1.6889 IS -0.2849
-2.5340 JIMMY -0.2484
-2.5340 JOSH -0.2492
-2.3579 JOSHUA -0.2477
-2.8351 KAR -0.3004
-2.8351 KEONG -0.3004
-2.8351 KILL -0.2492
-1.9320 LEFT -0.2492
-2.8351 LOKE -0.3004
-2.8351 LUA -0.2492
-2.3579 ME -0.2492
-2.5340 MESSOM -0.2492
-2.1361 MOVE -0.2855
-1.7211 MY -0.2908
-1.6309 NAME -0.2390
-2.5340 NEWN -0.2492
-2.8351 NO -0.2492
-2.8351 NOW -0.2492
-2.8351 PANIC -0.2492
-2.5340 PRIBADI -0.2492
-1.9320 RIGHT -0.2492
-2.8351 ROBOT -0.2492
-2.5340 ROTATE -0.2908
-2.8351 SAADAT -0.3004
-2.5340 SAFFARI -0.2492
-2.8351 SENG -0.2492
-2.2330 SIMON -0.2477
-2.2330 SLANT -0.2908
-2.8351 SLOW -0.3004
-2.8351 SLOWER -0.2492
-2.2330 SOROUSH -0.2477
-2.8351 SPEED -0.3004
-2.5340 STEER -0.2908
-2.5340 STOP -0.2484
-2.8351 STRAIGHT -0.2492
-2.8351 THANK -0.2972
-2.5340 TODAY -0.2492
-2.5340 TURN -0.2908
-2.8351 UP -0.2492
-2.8351 WELCOME -0.2492
-2.8351 WHAT -0.2920
-2.8351 WHATS -0.2991
-2.8351 WITH -0.2991
-2.8351 YES -0.2492
-2.0569 YOU -0.2456
-2.3579 YOUR -0.2901

\2-grams:
-2.1875 <s> ABORT 0.0000
-1.4094 <s> COME 0.0000
-2.1875 <s> DO 0.0000
-2.1875 <s> FASTER 0.0000
-2.1875 <s> FOLLOW 0.0000
-2.1875 <s> FREEZE 0.0000
-1.4094 <s> GO 0.0000
-1.8865 <s> HAIKAL 0.0000
-2.1875 <s> HALT 0.0000
-2.1875 <s> HELLO 0.0000
-1.8865 <s> HELP 0.0000
-1.5855 <s> HOW 0.0000
-1.8865 <s> JIMMY 0.0000
-2.1875 <s> JOSH 0.0000
-1.8865 <s> JOSHUA 0.0000
-2.1875 <s> KILL 0.0000
-1.4886 <s> MOVE 0.0000
-1.0736 <s> MY 0.0000
-2.1875 <s> NO 0.0000
-2.1875 <s> PANIC 0.0000
-1.8865 <s> ROTATE 0.0000
-1.8865 <s> SIMON 0.0000
-1.5855 <s> SLANT 0.0000
-2.1875 <s> SLOW 0.0000
-2.1875 <s> SLOWER 0.0000
-1.8865 <s> SOROUSH 0.0000
-2.1875 <s> SPEED 0.0000
-1.8865 <s> STEER 0.0000
-1.8865 <s> STOP 0.0000
-2.1875 <s> THANK 0.0000
-1.8865 <s> TURN 0.0000
-2.1875 <s> WHAT 0.0000
-2.1875 <s> WHATS 0.0000
-2.1875 <s> YES 0.0000
-2.1875 <s> YOUR -0.2218
-0.3010 A NAME -0.2583
-0.3010 ABORT </s> -0.3010
-0.3010 ALHASHMI </s> -0.3010
-0.3010 ARE YOU -0.0669
-0.3010 BACK </s> -0.3010
-0.3010 BACKWARD </s> -0.3010
-0.3010 CHRIS MESSOM 0.0000
-0.3010 CHRISTOPHER MESSOM 0.0000
-1.0792 COME BACKWARD 0.0000
-1.0792 COME FORWARD 0.0000
-1.0792 COME HERE 0.0000
-1.0792 COME LEFT 0.0000
-1.0792 COME RIGHT 0.0000
-1.0792 COME WITH 0.0000
-0.3010 DO YOU -0.2632
-0.6021 DOING </s> -0.3010
-0.6021 DOING TODAY 0.0000
-0.3010 DOWN </s> -0.3010
-0.3010 EGERTON </s> -0.3010
-0.3010 ENG KEONG 0.0000
-0.3010 FASTER </s> -0.3010
-0.3010 FOLLOW ME 0.0000
-0.3010 FORWARD </s> -0.3010
-0.3010 FREEZE </s> -0.3010
-1.0792 GO BACK 0.0000
-1.0792 GO BACKWARD 0.0000
-1.0792 GO FORWARD 0.0000
-1.0792 GO LEFT 0.0000
-1.0792 GO RIGHT 0.0000
-1.0792 GO STRAIGHT 0.0000
-0.6021 HAIKAL </s> -0.3010
-0.6021 HAIKAL PRIBADI 0.0000
-0.3010 HALT </s> -0.3010
-0.3010 HAVE A 0.0000
-0.3010 HELLO </s> -0.3010
-0.6021 HELP </s> -0.3010
-0.6021 HELP ME 0.0000
-0.3010 HERE </s> -0.3010
-0.3010 HOW ARE 0.0000
-1.4472 IS CHRIS 0.0000
-1.4472 IS CHRISTOPHER 0.0000
-1.4472 IS ENG 0.0000
-1.1461 IS HAIKAL 0.0000
-1.4472 IS JOSH 0.0000
-1.4472 IS JOSHUA -0.1249
-1.4472 IS LOKE 0.0000
-1.4472 IS SAADAT 0.0000
-1.1461 IS SIMON 0.0000
-1.1461 IS SOROUSH 0.0000
-1.4472 IS YOUR -0.1249
-0.6021 JIMMY </s> -0.3010
-0.6021 JIMMY ROBOT 0.0000
-0.3010 JOSH </s> -0.3010
-0.7782 JOSHUA </s> -0.3010
-0.4771 JOSHUA NEWN 0.0000
-0.3010 KAR SENG 0.0000
-0.3010 KEONG LUA 0.0000
-0.3010 KILL </s> -0.3010
-0.3010 LEFT </s> -0.3010
-0.3010 LOKE KAR 0.0000
-0.3010 LUA </s> -0.3010
-0.3010 ME </s> -0.3010
-0.3010 MESSOM </s> -0.3010
-1.0000 MOVE BACK 0.0000
-1.0000 MOVE BACKWARD 0.0000
-1.0000 MOVE FORWARD 0.0000
-1.0000 MOVE LEFT 0.0000
-1.0000 MOVE RIGHT 0.0000
-0.3010 MY NAME -0.0746
-1.0280 NAME </s> -0.3010
-0.3912 NAME IS -0.0300
-0.3010 NEWN </s> -0.3010
-0.3010 NO </s> -0.3010
-0.3010 NOW </s> -0.3010
-0.3010 PANIC </s> -0.3010
-0.3010 PRIBADI </s> -0.3010
-0.3010 RIGHT </s> -0.3010
-0.3010 ROBOT </s> -0.3010
-0.6021 ROTATE LEFT 0.0000
-0.6021 ROTATE RIGHT 0.0000
-0.3010 SAADAT ALHASHMI 0.0000
-0.3010 SAFFARI </s> -0.3010
-0.3010 SENG </s> -0.3010
-0.6021 SIMON </s> -0.3010
-0.6021 SIMON EGERTON 0.0000
-0.6021 SLANT LEFT 0.0000
-0.6021 SLANT RIGHT 0.0000
-0.3010 SLOW DOWN 0.0000
-0.3010 SLOWER </s> -0.3010
-0.6021 SOROUSH </s> -0.3010
-0.6021 SOROUSH SAFFARI 0.0000
-0.3010 SPEED UP 0.0000
-0.6021 STEER LEFT 0.0000
-0.6021 STEER RIGHT 0.0000
-0.6021 STOP </s> -0.3010
-0.6021 STOP NOW 0.0000
-0.3010 STRAIGHT </s> -0.3010
-0.3010 THANK YOU -0.2218
-0.3010 TODAY </s> -0.3010
-0.6021 TURN LEFT 0.0000
-0.6021 TURN RIGHT 0.0000
-0.3010 UP </s> -0.3010
-0.3010 WELCOME </s> -0.3010
-0.3010 WHAT IS -0.2852
-0.3010 WHATS YOUR -0.1249
-0.3010 WITH ME 0.0000
-0.3010 YES </s> -0.3010
-0.7782 YOU </s> -0.3010
-0.7782 YOU DOING 0.0000
-1.0792 YOU HAVE 0.0000
-1.0792 YOU TODAY 0.0000
-0.4771 YOUR NAME -0.2583
-0.7782 YOUR WELCOME 0.0000

\3-grams:
-0.3010 <s> ABORT </s>
-1.0792 <s> COME BACKWARD
-1.0792 <s> COME FORWARD
-1.0792 <s> COME HERE
-1.0792 <s> COME LEFT
-1.0792 <s> COME RIGHT
-1.0792 <s> COME WITH
-0.3010 <s> DO YOU
-0.3010 <s> FASTER </s>
-0.3010 <s> FOLLOW ME
-0.3010 <s> FREEZE </s>
-1.0792 <s> GO BACK
-1.0792 <s> GO BACKWARD
-1.0792 <s> GO FORWARD
-1.0792 <s> GO LEFT
-1.0792 <s> GO RIGHT
-1.0792 <s> GO STRAIGHT
-0.6021 <s> HAIKAL </s>
-0.6021 <s> HAIKAL PRIBADI
-0.3010 <s> HALT </s>
-0.3010 <s> HELLO </s>
-0.6021 <s> HELP </s>
-0.6021 <s> HELP ME
-0.3010 <s> HOW ARE
-0.6021 <s> JIMMY </s>
-0.6021 <s> JIMMY ROBOT
-0.3010 <s> JOSH </s>
-0.6021 <s> JOSHUA </s>
-0.6021 <s> JOSHUA NEWN
-0.3010 <s> KILL </s>
-1.0000 <s> MOVE BACK
-1.0000 <s> MOVE BACKWARD
-1.0000 <s> MOVE FORWARD
-1.0000 <s> MOVE LEFT
-1.0000 <s> MOVE RIGHT
-0.3010 <s> MY NAME
-0.3010 <s> NO </s>
-0.3010 <s> PANIC </s>
-0.6021 <s> ROTATE LEFT
-0.6021 <s> ROTATE RIGHT
-0.6021 <s> SIMON </s>
-0.6021 <s> SIMON EGERTON
-0.6021 <s> SLANT LEFT
-0.6021 <s> SLANT RIGHT
-0.3010 <s> SLOW DOWN
-0.3010 <s> SLOWER </s>
-0.6021 <s> SOROUSH </s>
-0.6021 <s> SOROUSH SAFFARI
-0.3010 <s> SPEED UP
-0.6021 <s> STEER LEFT
-0.6021 <s> STEER RIGHT
-0.6021 <s> STOP </s>
-0.6021 <s> STOP NOW
-0.3010 <s> THANK YOU
-0.6021 <s> TURN LEFT
-0.6021 <s> TURN RIGHT
-0.3010 <s> WHAT IS
-0.3010 <s> WHATS YOUR
-0.3010 <s> YES </s>
-0.3010 <s> YOUR WELCOME
-0.3010 A NAME </s>
-0.9031 ARE YOU </s>
-0.6021 ARE YOU DOING
-0.9031 ARE YOU TODAY
-0.3010 CHRIS MESSOM </s>
-0.3010 CHRISTOPHER MESSOM </s>
-0.3010 COME BACKWARD </s>
-0.3010 COME FORWARD </s>
-0.3010 COME HERE </s>
-0.3010 COME LEFT </s>
-0.3010 COME RIGHT </s>
-0.3010 COME WITH ME
-0.3010 DO YOU HAVE
-0.3010 DOING TODAY </s>
-0.3010 ENG KEONG LUA
-0.3010 FOLLOW ME </s>
-0.3010 GO BACK </s>
-0.3010 GO BACKWARD </s>
-0.3010 GO FORWARD </s>
-0.3010 GO LEFT </s>
-0.3010 GO RIGHT </s>
-0.3010 GO STRAIGHT </s>
-0.3010 HAIKAL PRIBADI </s>
-0.3010 HAVE A NAME
-0.3010 HELP ME </s>
-0.3010 HOW ARE YOU
-0.3010 IS CHRIS MESSOM
-0.3010 IS CHRISTOPHER MESSOM
-0.3010 IS ENG KEONG
-0.6021 IS HAIKAL </s>
-0.6021 IS HAIKAL PRIBADI
-0.3010 IS JOSH </s>
-0.3010 IS JOSHUA NEWN
-0.3010 IS LOKE KAR
-0.3010 IS SAADAT ALHASHMI
-0.6021 IS SIMON </s>
-0.6021 IS SIMON EGERTON
-0.6021 IS SOROUSH </s>
-0.6021 IS SOROUSH SAFFARI
-0.3010 IS YOUR NAME
-0.3010 JIMMY ROBOT </s>
-0.3010 JOSHUA NEWN </s>
-0.3010 KAR SENG </s>
-0.3010 KEONG LUA </s>
-0.3010 LOKE KAR SENG
-0.3010 MOVE BACK </s>
-0.3010 MOVE BACKWARD </s>
-0.3010 MOVE FORWARD </s>
-0.3010 MOVE LEFT </s>
-0.3010 MOVE RIGHT </s>
-0.3010 MY NAME IS
-1.4150 NAME IS CHRIS
-1.4150 NAME IS CHRISTOPHER
-1.4150 NAME IS ENG
-1.1139 NAME IS HAIKAL
-1.4150 NAME IS JOSH
-1.4150 NAME IS JOSHUA
-1.4150 NAME IS LOKE
-1.4150 NAME IS SAADAT
-1.1139 NAME IS SIMON
-1.1139 NAME IS SOROUSH
-0.3010 ROTATE LEFT </s>
-0.3010 ROTATE RIGHT </s>
-0.3010 SAADAT ALHASHMI </s>
-0.3010 SIMON EGERTON </s>
-0.3010 SLANT LEFT </s>
-0.3010 SLANT RIGHT </s>
-0.3010 SLOW DOWN </s>
-0.3010 SOROUSH SAFFARI </s>
-0.3010 SPEED UP </s>
-0.3010 STEER LEFT </s>
-0.3010 STEER RIGHT </s>
-0.3010 STOP NOW </s>
-0.3010 THANK YOU </s>
-0.3010 TURN LEFT </s>
-0.3010 TURN RIGHT </s>
-0.3010 WHAT IS YOUR
-0.3010 WHATS YOUR NAME
-0.3010 WITH ME </s>
-0.6021 YOU DOING </s>
-0.6021 YOU DOING TODAY
-0.3010 YOU HAVE A
-0.3010 YOU TODAY </s>
-0.3010 YOUR NAME </s>
-0.3010 YOUR WELCOME </s>

\end\
