Language model created by QuickLM on Sat May 19 06:49:02 EDT 2012
Copyright (c) 1996-2010 Carnegie Mellon University and Alexander I. Rudnicky

The model is in standard ARPA format, designed by Doug Paul while he was at MITRE.

The code that was used to produce this language model is available in Open Source.
Please visit http://www.speech.cs.cmu.edu/tools/ for more information

The (fixed) discount mass is 0.5. The backoffs are computed using the ratio method.
This model based on a corpus of 154 sentences and 123 words

\data\
ngram 1=123
ngram 2=289
ngram 3=306

\1-grams:
-1.0424 </s> -0.3010
-1.0424 <s> -0.2316
-2.0258 A -0.2790
-3.2299 ABORT -0.2597
-2.7528 ALE -0.2597
-3.2299 ALHASHMI -0.2597
-2.6279 AN -0.2979
-2.7528 AND -0.3003
-3.2299 ANOTHER -0.2597
-2.7528 ANY -0.2930
-2.7528 APPLE -0.2995
-2.6279 ARE -0.2902
-2.9289 BACK -0.2597
-2.7528 BACKWARD -0.2597
-2.7528 BRANDY -0.2597
-1.6617 CAN -0.2883
-2.7528 CANCEL -0.2498
-1.9747 CHANGE -0.2920
-3.2299 CHRIS -0.3005
-3.2299 CHRISTOPHER -0.3005
-2.4518 CIDER -0.2597
-2.7528 COKE -0.2597
-2.5310 COME -0.2951
-2.7528 CREAM -0.2597
-3.2299 DO -0.2902
-2.9289 DOING -0.2592
-3.2299 DONT -0.3008
-2.9289 DOWN -0.2597
-1.7386 DRINK -0.2524
-2.9289 EGERTON -0.2597
-3.2299 ENG -0.3008
-3.2299 FASTER -0.2597
-3.2299 FIRST -0.2597
-3.2299 FOLLOW -0.2956
-2.7528 FORWARD -0.2597
-3.2299 FREEZE -0.2597
-3.2299 FULL -0.3000
-1.9747 GET -0.2956
-2.7528 GIN -0.3003
-2.4518 GO -0.2946
-2.6279 HAIKAL -0.2592
-3.2299 HALF -0.3000
-3.2299 HALT -0.2597
-2.7528 HAVE -0.2969
-3.2299 HELLO -0.2597
-2.9289 HELP -0.2538
-3.2299 HERE -0.2597
-2.6279 HOW -0.3000
-2.3848 I -0.2987
-2.7528 IRISH -0.3003
-1.9289 IS -0.2501
-2.9289 JIMMY -0.2595
-2.9289 JOSH -0.2597
-2.7528 JOSHUA -0.2592
-2.7528 JUICE -0.2597
-3.2299 KAR -0.3008
-3.2299 KEONG -0.3008
-3.2299 KILL -0.2597
-2.7528 LARGER -0.2597
-3.2299 LAST -0.2597
-2.3268 LEFT -0.2597
-2.7528 LEMONADE -0.2597
-2.9289 LIKE -0.2961
-3.2299 LOKE -0.3008
-3.2299 LUA -0.2597
-1.9077 ME -0.2532
-2.9289 MESSOM -0.2597
-2.5310 MOVE -0.2948
-1.6859 MY -0.2886
-1.9995 NAME -0.2541
-2.9289 NEWN -0.2597
-2.9289 NO -0.2592
-2.9289 NOT -0.2907
-3.2299 NOW -0.2597
-3.2299 OFF -0.2597
-2.7528 ORANGE -0.3003
-2.7528 ORDERED -0.2597
-3.2299 PANIC -0.2597
-2.7528 PEAR -0.2995
-3.2299 PLEASE -0.2597
-2.9289 PRIBADI -0.2597
-3.2299 QUARTER -0.3000
-2.7528 RED -0.2987
-2.3268 RIGHT -0.2597
-3.2299 ROBOT -0.2597
-2.7528 ROSE -0.2987
-2.9289 ROTATE -0.2969
-2.7528 RUM -0.2597
-3.2299 SAADAT -0.3008
-2.9289 SAFFARI -0.2597
-3.2299 SENG -0.2597
-3.2299 SHUT -0.3005
-2.6279 SIMON -0.2592
-2.6279 SLANT -0.2969
-3.2299 SLOW -0.3005
-3.2299 SLOWER -0.2597
-2.6279 SOROUSH -0.2592
-2.6279 SPEED -0.2595
-2.9289 STEER -0.2969
-2.9289 STOP -0.2595
-3.2299 STRAIGHT -0.2597
-3.2299 SURPRISE -0.2956
-3.2299 THANK -0.2902
-2.4518 THAT -0.2878
-2.5310 THE -0.2492
-1.9512 TO -0.2399
-2.9289 TODAY -0.2597
-2.7528 TONIC -0.2597
-2.7528 TURN -0.2967
-3.2299 UP -0.2597
-2.7528 VODKA -0.2597
-3.2299 WANT -0.2995
-3.2299 WELCOME -0.2597
-2.9289 WHAT -0.2941
-3.2299 WHATS -0.3003
-2.7528 WHISKY -0.2597
-2.7528 WHITE -0.2987
-2.2757 WINE -0.2597
-2.9289 WOULD -0.3005
-3.2299 WRONG -0.2930
-3.2299 YES -0.2597
-1.6067 YOU -0.2466
-2.7528 YOUR -0.2964

\2-grams:
-2.4886 <s> ABORT 0.0000
-2.4886 <s> ALE 0.0000
-2.4886 <s> ANOTHER 0.0000
-2.1875 <s> ANY 0.0000
-2.4886 <s> APPLE 0.0000
-2.4886 <s> BRANDY 0.0000
-0.9203 <s> CAN 0.0000
-2.1875 <s> CANCEL 0.0000
-2.4886 <s> COKE 0.0000
-1.7896 <s> COME 0.0000
-2.4886 <s> DO 0.0000
-2.4886 <s> FASTER 0.0000
-2.4886 <s> FIRST 0.0000
-2.4886 <s> FOLLOW 0.0000
-2.4886 <s> FREEZE 0.0000
-2.4886 <s> FULL 0.0000
-2.4886 <s> GIN 0.0000
-1.7104 <s> GO 0.0000
-2.1875 <s> HAIKAL 0.0000
-2.4886 <s> HALF 0.0000
-2.4886 <s> HALT 0.0000
-2.4886 <s> HELLO 0.0000
-2.1875 <s> HELP 0.0000
-1.8865 <s> HOW 0.0000
-2.0114 <s> I -0.1963
-2.4886 <s> IRISH 0.0000
-2.1875 <s> JIMMY 0.0000
-2.4886 <s> JOSH 0.0000
-2.1875 <s> JOSHUA 0.0000
-2.4886 <s> KILL 0.0000
-2.4886 <s> LARGER 0.0000
-2.4886 <s> LAST 0.0000
-2.4886 <s> LEMONADE 0.0000
-1.7896 <s> MOVE 0.0000
-1.3424 <s> MY -0.2041
-2.4886 <s> NO -0.1761
-2.4886 <s> ORANGE 0.0000
-2.4886 <s> PANIC 0.0000
-2.4886 <s> PEAR 0.0000
-2.4886 <s> PLEASE 0.0000
-2.4886 <s> QUARTER 0.0000
-2.4886 <s> RED 0.0000
-2.4886 <s> ROSE 0.0000
-2.1875 <s> ROTATE 0.0000
-2.4886 <s> RUM 0.0000
-2.4886 <s> SHUT 0.0000
-2.1875 <s> SIMON 0.0000
-1.8865 <s> SLANT 0.0000
-2.4886 <s> SLOW 0.0000
-2.4886 <s> SLOWER 0.0000
-2.1875 <s> SOROUSH 0.0000
-2.4886 <s> SPEED -0.2430
-2.1875 <s> STEER 0.0000
-2.1875 <s> STOP 0.0000
-2.4886 <s> SURPRISE 0.0000
-2.4886 <s> THANK 0.0000
-1.7896 <s> THAT -0.0669
-2.4886 <s> THE -0.2553
-2.4886 <s> TO -0.2894
-2.0114 <s> TURN 0.0000
-2.4886 <s> VODKA 0.0000
-2.4886 <s> WHAT -0.1761
-2.4886 <s> WHATS 0.0000
-2.4886 <s> WHISKY 0.0000
-2.4886 <s> WHITE 0.0000
-2.4886 <s> YES 0.0000
-2.4886 <s> YOUR -0.2218
-1.5051 A BRANDY 0.0000
-1.5051 A COKE 0.0000
-1.0280 A DRINK -0.1988
-1.5051 A GIN 0.0000
-1.5051 A LARGER 0.0000
-1.5051 A LEMONADE 0.0000
-1.5051 A NAME -0.2609
-1.5051 A PEAR 0.0000
-1.5051 A RED 0.0000
-1.5051 A ROSE 0.0000
-1.5051 A RUM 0.0000
-1.5051 A VODKA 0.0000
-1.5051 A WHISKY 0.0000
-1.5051 A WHITE 0.0000
-0.3010 ABORT </s> -0.3010
-0.3010 ALE </s> -0.3010
-0.3010 ALHASHMI </s> -0.3010
-0.9031 AN ALE 0.0000
-0.9031 AN APPLE 0.0000
-0.9031 AN IRISH 0.0000
-0.9031 AN ORANGE 0.0000
-0.3010 AND TONIC 0.0000
-0.3010 ANOTHER </s> -0.3010
-0.3010 ANY DRINK -0.1988
-0.3010 APPLE CIDER 0.0000
-0.3010 ARE YOU -0.2744
-0.3010 BACK </s> -0.3010
-0.3010 BACKWARD </s> -0.3010
-0.3010 BRANDY </s> -0.3010
-1.8692 CAN I -0.2688
-0.3129 CAN YOU -0.0580
-0.7782 CANCEL </s> -0.3010
-0.4771 CANCEL MY -0.1461
-0.3010 CHANGE MY -0.1461
-0.3010 CHRIS MESSOM 0.0000
-0.3010 CHRISTOPHER MESSOM 0.0000
-0.3010 CIDER </s> -0.3010
-0.3010 COKE </s> -0.3010
-1.0000 COME BACKWARD 0.0000
-1.0000 COME FORWARD 0.0000
-1.0000 COME HERE 0.0000
-1.0000 COME LEFT 0.0000
-1.0000 COME RIGHT 0.0000
-0.3010 CREAM </s> -0.3010
-0.3010 DO YOU -0.2958
-0.6021 DOING </s> -0.3010
-0.6021 DOING TODAY 0.0000
-0.3010 DONT WANT 0.0000
-0.3010 DOWN </s> -0.3010
-0.6784 DRINK </s> -0.3010
-1.4914 DRINK I -0.1963
-0.5883 DRINK TO -0.0637
-0.3010 EGERTON </s> -0.3010
-0.3010 ENG KEONG 0.0000
-0.3010 FASTER </s> -0.3010
-0.3010 FIRST </s> -0.3010
-0.3010 FOLLOW ME -0.2688
-0.3010 FORWARD </s> -0.3010
-0.3010 FREEZE </s> -0.3010
-0.3010 FULL SPEED -0.0969
-0.3010 GET ME -0.0580
-0.3010 GIN AND 0.0000
-1.0792 GO BACK 0.0000
-1.0792 GO BACKWARD 0.0000
-1.0792 GO FORWARD 0.0000
-1.0792 GO LEFT 0.0000
-1.0792 GO RIGHT 0.0000
-1.0792 GO STRAIGHT 0.0000
-0.6021 HAIKAL </s> -0.3010
-0.6021 HAIKAL PRIBADI 0.0000
-0.3010 HALF SPEED -0.0969
-0.3010 HALT </s> -0.3010
-0.3010 HAVE A -0.2430
-0.3010 HELLO </s> -0.3010
-0.6021 HELP </s> -0.3010
-0.6021 HELP ME -0.2688
-0.3010 HERE </s> -0.3010
-0.3010 HOW ARE 0.0000
-1.1461 I DONT 0.0000
-1.1461 I HAVE 0.0000
-0.6690 I ORDERED 0.0000
-0.8451 I WOULD 0.0000
-0.3010 IRISH CREAM 0.0000
-1.6021 IS </s> -0.3010
-1.6021 IS CHRIS 0.0000
-1.6021 IS CHRISTOPHER 0.0000
-1.6021 IS ENG 0.0000
-1.3010 IS HAIKAL 0.0000
-1.6021 IS JOSH 0.0000
-1.6021 IS JOSHUA -0.1249
-1.6021 IS LOKE 0.0000
-1.6021 IS NO -0.1761
-1.3010 IS NOT 0.0000
-1.6021 IS SAADAT 0.0000
-1.3010 IS SIMON 0.0000
-1.3010 IS SOROUSH 0.0000
-1.3010 IS THE -0.2041
-1.6021 IS YOUR -0.1249
-0.6021 JIMMY </s> -0.3010
-0.6021 JIMMY ROBOT 0.0000
-0.3010 JOSH </s> -0.3010
-0.7782 JOSHUA </s> -0.3010
-0.4771 JOSHUA NEWN 0.0000
-0.3010 JUICE </s> -0.3010
-0.3010 KAR SENG 0.0000
-0.3010 KEONG LUA 0.0000
-0.3010 KILL </s> -0.3010
-0.3010 LARGER </s> -0.3010
-0.3010 LAST </s> -0.3010
-0.3010 LEFT </s> -0.3010
-0.3010 LEMONADE </s> -0.3010
-0.3010 LIKE TO -0.2775
-0.3010 LOKE KAR 0.0000
-0.3010 LUA </s> -0.3010
-1.1461 ME </s> -0.3010
-0.5093 ME A -0.0263
-1.0212 ME AN 0.0000
-1.6232 ME ANY 0.0000
-0.3010 MESSOM </s> -0.3010
-1.0000 MOVE BACK 0.0000
-1.0000 MOVE BACKWARD 0.0000
-1.0000 MOVE FORWARD 0.0000
-1.0000 MOVE LEFT 0.0000
-1.0000 MOVE RIGHT 0.0000
-0.5229 MY DRINK -0.0272
-0.6990 MY NAME -0.0706
-1.0544 NAME </s> -0.3010
-0.3854 NAME IS -0.1139
-0.3010 NEWN </s> -0.3010
-0.6021 NO </s> -0.3010
-0.6021 NO WHAT -0.1761
-0.6021 NOT MY -0.1461
-0.6021 NOT THE -0.2041
-0.3010 NOW </s> -0.3010
-0.3010 OFF </s> -0.3010
-0.3010 ORANGE JUICE 0.0000
-0.3010 ORDERED </s> -0.3010
-0.3010 PANIC </s> -0.3010
-0.3010 PEAR CIDER 0.0000
-0.3010 PLEASE </s> -0.3010
-0.3010 PRIBADI </s> -0.3010
-0.3010 QUARTER SPEED -0.0969
-0.3010 RED WINE 0.0000
-0.3010 RIGHT </s> -0.3010
-0.3010 ROBOT </s> -0.3010
-0.3010 ROSE WINE 0.0000
-0.6021 ROTATE LEFT 0.0000
-0.6021 ROTATE RIGHT 0.0000
-0.3010 RUM </s> -0.3010
-0.3010 SAADAT ALHASHMI 0.0000
-0.3010 SAFFARI </s> -0.3010
-0.3010 SENG </s> -0.3010
-0.3010 SHUT DOWN 0.0000
-0.6021 SIMON </s> -0.3010
-0.6021 SIMON EGERTON 0.0000
-0.6021 SLANT LEFT 0.0000
-0.6021 SLANT RIGHT 0.0000
-0.3010 SLOW DOWN 0.0000
-0.3010 SLOWER </s> -0.3010
-0.6021 SOROUSH </s> -0.3010
-0.6021 SOROUSH SAFFARI 0.0000
-0.4260 SPEED </s> -0.3010
-0.9031 SPEED UP 0.0000
-0.6021 STEER LEFT 0.0000
-0.6021 STEER RIGHT 0.0000
-0.6021 STOP </s> -0.3010
-0.6021 STOP NOW 0.0000
-0.3010 STRAIGHT </s> -0.3010
-0.3010 SURPRISE ME -0.2688
-0.3010 THANK YOU -0.2906
-1.0792 THAT DRINK -0.1988
-0.3802 THAT IS -0.2430
-1.0000 THE </s> -0.3010
-0.6990 THE DRINK -0.2868
-1.0000 THE THE -0.2041
-1.0000 THE WRONG 0.0000
-1.5798 TO </s> -0.3010
-1.5798 TO ALE 0.0000
-1.5798 TO APPLE 0.0000
-1.5798 TO BRANDY 0.0000
-1.5798 TO CHANGE 0.0000
-1.5798 TO COKE 0.0000
-1.5798 TO GIN 0.0000
-1.5798 TO HAVE 0.0000
-1.5798 TO IRISH 0.0000
-1.5798 TO LARGER 0.0000
-1.5798 TO LEMONADE 0.0000
-1.5798 TO ORANGE 0.0000
-1.5798 TO PEAR 0.0000
-1.5798 TO RED 0.0000
-1.5798 TO ROSE 0.0000
-1.5798 TO RUM 0.0000
-1.5798 TO VODKA 0.0000
-1.5798 TO WHISKY 0.0000
-1.5798 TO WHITE 0.0000
-0.3010 TODAY </s> -0.3010
-0.3010 TONIC </s> -0.3010
-0.7782 TURN LEFT 0.0000
-0.7782 TURN OFF 0.0000
-0.7782 TURN RIGHT 0.0000
-0.3010 UP </s> -0.3010
-0.3010 VODKA </s> -0.3010
-0.3010 WANT THAT -0.2632
-0.3010 WELCOME </s> -0.3010
-0.6021 WHAT I -0.1963
-0.6021 WHAT IS -0.2900
-0.3010 WHATS YOUR -0.1249
-0.3010 WHISKY </s> -0.3010
-0.3010 WHITE WINE 0.0000
-0.3010 WINE </s> -0.3010
-0.3010 WOULD LIKE 0.0000
-0.3010 WRONG DRINK -0.1988
-0.3010 YES </s> -0.3010
-1.6232 YOU </s> -0.3010
-1.9243 YOU CANCEL -0.1249
-0.6938 YOU CHANGE 0.0000
-1.6232 YOU DOING 0.0000
-0.6690 YOU GET 0.0000
-1.9243 YOU HAVE 0.0000
-1.9243 YOU TODAY 0.0000
-0.4771 YOUR NAME -0.2609
-0.7782 YOUR WELCOME 0.0000

\3-grams:
-0.3010 <s> ABORT </s>
-0.3010 <s> ALE </s>
-0.3010 <s> ANOTHER </s>
-0.3010 <s> ANY DRINK
-0.3010 <s> APPLE CIDER
-0.3010 <s> BRANDY </s>
-1.8692 <s> CAN I
-0.3129 <s> CAN YOU
-0.6021 <s> CANCEL </s>
-0.6021 <s> CANCEL MY
-0.3010 <s> COKE </s>
-1.0000 <s> COME BACKWARD
-1.0000 <s> COME FORWARD
-1.0000 <s> COME HERE
-1.0000 <s> COME LEFT
-1.0000 <s> COME RIGHT
-0.3010 <s> DO YOU
-0.3010 <s> FASTER </s>
-0.3010 <s> FIRST </s>
-0.3010 <s> FOLLOW ME
-0.3010 <s> FREEZE </s>
-0.3010 <s> FULL SPEED
-0.3010 <s> GIN AND
-1.0792 <s> GO BACK
-1.0792 <s> GO BACKWARD
-1.0792 <s> GO FORWARD
-1.0792 <s> GO LEFT
-1.0792 <s> GO RIGHT
-1.0792 <s> GO STRAIGHT
-0.6021 <s> HAIKAL </s>
-0.6021 <s> HAIKAL PRIBADI
-0.3010 <s> HALF SPEED
-0.3010 <s> HALT </s>
-0.3010 <s> HELLO </s>
-0.6021 <s> HELP </s>
-0.6021 <s> HELP ME
-0.3010 <s> HOW ARE
-0.7782 <s> I DONT
-0.4771 <s> I WOULD
-0.3010 <s> IRISH CREAM
-0.6021 <s> JIMMY </s>
-0.6021 <s> JIMMY ROBOT
-0.3010 <s> JOSH </s>
-0.6021 <s> JOSHUA </s>
-0.6021 <s> JOSHUA NEWN
-0.3010 <s> KILL </s>
-0.3010 <s> LARGER </s>
-0.3010 <s> LAST </s>
-0.3010 <s> LEMONADE </s>
-1.0000 <s> MOVE BACK
-1.0000 <s> MOVE BACKWARD
-1.0000 <s> MOVE FORWARD
-1.0000 <s> MOVE LEFT
-1.0000 <s> MOVE RIGHT
-0.3010 <s> MY NAME
-0.3010 <s> NO </s>
-0.3010 <s> ORANGE JUICE
-0.3010 <s> PANIC </s>
-0.3010 <s> PEAR CIDER
-0.3010 <s> PLEASE </s>
-0.3010 <s> QUARTER SPEED
-0.3010 <s> RED WINE
-0.3010 <s> ROSE WINE
-0.6021 <s> ROTATE LEFT
-0.6021 <s> ROTATE RIGHT
-0.3010 <s> RUM </s>
-0.3010 <s> SHUT DOWN
-0.6021 <s> SIMON </s>
-0.6021 <s> SIMON EGERTON
-0.6021 <s> SLANT LEFT
-0.6021 <s> SLANT RIGHT
-0.3010 <s> SLOW DOWN
-0.3010 <s> SLOWER </s>
-0.6021 <s> SOROUSH </s>
-0.6021 <s> SOROUSH SAFFARI
-0.3010 <s> SPEED UP
-0.6021 <s> STEER LEFT
-0.6021 <s> STEER RIGHT
-0.6021 <s> STOP </s>
-0.6021 <s> STOP NOW
-0.3010 <s> SURPRISE ME
-0.3010 <s> THANK YOU
-0.3010 <s> THAT IS
-0.3010 <s> THE </s>
-0.3010 <s> TO </s>
-0.7782 <s> TURN LEFT
-0.7782 <s> TURN OFF
-0.7782 <s> TURN RIGHT
-0.3010 <s> VODKA </s>
-0.3010 <s> WHAT IS
-0.3010 <s> WHATS YOUR
-0.3010 <s> WHISKY </s>
-0.3010 <s> WHITE WINE
-0.3010 <s> YES </s>
-0.3010 <s> YOUR WELCOME
-0.3010 A BRANDY </s>
-0.3010 A COKE </s>
-0.3010 A DRINK </s>
-0.3010 A GIN AND
-0.3010 A LARGER </s>
-0.3010 A LEMONADE </s>
-0.3010 A NAME </s>
-0.3010 A PEAR CIDER
-0.3010 A RED WINE
-0.3010 A ROSE WINE
-0.3010 A RUM </s>
-0.3010 A VODKA </s>
-0.3010 A WHISKY </s>
-0.3010 A WHITE WINE
-0.3010 AN ALE </s>
-0.3010 AN APPLE CIDER
-0.3010 AN IRISH CREAM
-0.3010 AN ORANGE JUICE
-0.3010 AND TONIC </s>
-0.3010 ANY DRINK </s>
-0.3010 APPLE CIDER </s>
-0.9031 ARE YOU </s>
-0.6021 ARE YOU DOING
-0.9031 ARE YOU TODAY
-0.3010 CAN I HAVE
-1.8573 CAN YOU CANCEL
-0.6269 CAN YOU CHANGE
-0.6021 CAN YOU GET
-0.3010 CANCEL MY DRINK
-0.3010 CHANGE MY DRINK
-0.3010 CHRIS MESSOM </s>
-0.3010 CHRISTOPHER MESSOM </s>
-0.3010 COME BACKWARD </s>
-0.3010 COME FORWARD </s>
-0.3010 COME HERE </s>
-0.3010 COME LEFT </s>
-0.3010 COME RIGHT </s>
-0.3010 DO YOU HAVE
-0.3010 DOING TODAY </s>
-0.3010 DONT WANT THAT
-0.3010 DRINK I ORDERED
-1.5051 DRINK TO ALE
-1.5051 DRINK TO APPLE
-1.5051 DRINK TO BRANDY
-1.5051 DRINK TO COKE
-1.5051 DRINK TO GIN
-1.5051 DRINK TO IRISH
-1.5051 DRINK TO LARGER
-1.5051 DRINK TO LEMONADE
-1.5051 DRINK TO ORANGE
-1.5051 DRINK TO PEAR
-1.5051 DRINK TO RED
-1.5051 DRINK TO ROSE
-1.5051 DRINK TO RUM
-1.5051 DRINK TO VODKA
-1.5051 DRINK TO WHISKY
-1.5051 DRINK TO WHITE
-0.3010 ENG KEONG LUA
-0.3010 FOLLOW ME </s>
-0.3010 FULL SPEED </s>
-0.4424 GET ME A
-0.9542 GET ME AN
-1.5563 GET ME ANY
-0.3010 GIN AND TONIC
-0.3010 GO BACK </s>
-0.3010 GO BACKWARD </s>
-0.3010 GO FORWARD </s>
-0.3010 GO LEFT </s>
-0.3010 GO RIGHT </s>
-0.3010 GO STRAIGHT </s>
-0.3010 HAIKAL PRIBADI </s>
-0.3010 HALF SPEED </s>
-0.4771 HAVE A DRINK
-0.7782 HAVE A NAME
-0.3010 HELP ME </s>
-0.3010 HOW ARE YOU
-0.3010 I DONT WANT
-0.3010 I HAVE A
-0.3010 I ORDERED </s>
-0.3010 I WOULD LIKE
-0.3010 IRISH CREAM </s>
-0.3010 IS CHRIS MESSOM
-0.3010 IS CHRISTOPHER MESSOM
-0.3010 IS ENG KEONG
-0.6021 IS HAIKAL </s>
-0.6021 IS HAIKAL PRIBADI
-0.3010 IS JOSH </s>
-0.3010 IS JOSHUA NEWN
-0.3010 IS LOKE KAR
-0.3010 IS NO WHAT
-0.6021 IS NOT MY
-0.6021 IS NOT THE
-0.3010 IS SAADAT ALHASHMI
-0.6021 IS SIMON </s>
-0.6021 IS SIMON EGERTON
-0.6021 IS SOROUSH </s>
-0.6021 IS SOROUSH SAFFARI
-0.6021 IS THE THE
-0.6021 IS THE WRONG
-0.3010 IS YOUR NAME
-0.3010 JIMMY ROBOT </s>
-0.3010 JOSHUA NEWN </s>
-0.3010 KAR SENG </s>
-0.3010 KEONG LUA </s>
-0.6021 LIKE TO CHANGE
-0.6021 LIKE TO HAVE
-0.3010 LOKE KAR SENG
-1.4150 ME A BRANDY
-1.4150 ME A COKE
-1.4150 ME A DRINK
-1.4150 ME A GIN
-1.4150 ME A LARGER
-1.4150 ME A LEMONADE
-1.4150 ME A PEAR
-1.4150 ME A RED
-1.4150 ME A ROSE
-1.4150 ME A RUM
-1.4150 ME A VODKA
-1.4150 ME A WHISKY
-1.4150 ME A WHITE
-0.9031 ME AN ALE
-0.9031 ME AN APPLE
-0.9031 ME AN IRISH
-0.9031 ME AN ORANGE
-0.3010 ME ANY DRINK
-0.3010 MOVE BACK </s>
-0.3010 MOVE BACKWARD </s>
-0.3010 MOVE FORWARD </s>
-0.3010 MOVE LEFT </s>
-0.3010 MOVE RIGHT </s>
-0.9243 MY DRINK </s>
-0.4191 MY DRINK TO
-0.3010 MY NAME IS
-1.4472 NAME IS </s>
-1.4472 NAME IS CHRIS
-1.4472 NAME IS CHRISTOPHER
-1.4472 NAME IS ENG
-1.1461 NAME IS HAIKAL
-1.4472 NAME IS JOSH
-1.4472 NAME IS JOSHUA
-1.4472 NAME IS LOKE
-1.4472 NAME IS SAADAT
-1.1461 NAME IS SIMON
-1.1461 NAME IS SOROUSH
-0.3010 NO WHAT I
-0.3010 NOT MY DRINK
-0.3010 NOT THE DRINK
-0.3010 ORANGE JUICE </s>
-0.3010 PEAR CIDER </s>
-0.3010 QUARTER SPEED </s>
-0.3010 RED WINE </s>
-0.3010 ROSE WINE </s>
-0.3010 ROTATE LEFT </s>
-0.3010 ROTATE RIGHT </s>
-0.3010 SAADAT ALHASHMI </s>
-0.3010 SHUT DOWN </s>
-0.3010 SIMON EGERTON </s>
-0.3010 SLANT LEFT </s>
-0.3010 SLANT RIGHT </s>
-0.3010 SLOW DOWN </s>
-0.3010 SOROUSH SAFFARI </s>
-0.3010 SPEED UP </s>
-0.3010 STEER LEFT </s>
-0.3010 STEER RIGHT </s>
-0.3010 STOP NOW </s>
-0.3010 SURPRISE ME </s>
-0.3010 THANK YOU </s>
-0.3010 THAT DRINK </s>
-1.0000 THAT IS NO
-0.6990 THAT IS NOT
-0.6990 THAT IS THE
-0.3010 THE DRINK I
-0.3010 THE THE DRINK
-0.3010 THE WRONG DRINK
-0.3010 TO ALE </s>
-0.3010 TO APPLE CIDER
-0.3010 TO BRANDY </s>
-0.3010 TO CHANGE MY
-0.3010 TO COKE </s>
-0.3010 TO GIN AND
-0.3010 TO HAVE A
-0.3010 TO IRISH CREAM
-0.3010 TO LARGER </s>
-0.3010 TO LEMONADE </s>
-0.3010 TO ORANGE JUICE
-0.3010 TO PEAR CIDER
-0.3010 TO RED WINE
-0.3010 TO ROSE WINE
-0.3010 TO RUM </s>
-0.3010 TO VODKA </s>
-0.3010 TO WHISKY </s>
-0.3010 TO WHITE WINE
-0.3010 TURN LEFT </s>
-0.3010 TURN OFF </s>
-0.3010 TURN RIGHT </s>
-0.3010 WANT THAT DRINK
-0.3010 WHAT I ORDERED
-0.3010 WHAT IS YOUR
-0.3010 WHATS YOUR NAME
-0.3010 WHITE WINE </s>
-0.3010 WOULD LIKE TO
-0.3010 WRONG DRINK </s>
-0.3010 YOU CANCEL MY
-0.3010 YOU CHANGE MY
-0.6021 YOU DOING </s>
-0.6021 YOU DOING TODAY
-0.3010 YOU GET ME
-0.3010 YOU HAVE A
-0.3010 YOU TODAY </s>
-0.3010 YOUR NAME </s>
-0.3010 YOUR WELCOME </s>

\end\
